{
  "samples": [
    [
      0.5550311203731485,
      0.37162130606601257,
      -0.10886840860965678,
      0.5505217816433713,
      273,
      153
    ],
    [
      0.5129391121989628,
      0.3717803290942364,
      -0.10875245504429201,
      0.5609075690637828,
      683,
      153
    ],
    [
      0.4706925394231755,
      0.3612732909595535,
      -0.09990497738351588,
      0.5723711700736052,
      1092,
      153
    ],
    [
      0.555513718131633,
      0.37403898834972893,
      -0.09986523103507469,
      0.5659848374381031,
      273,
      384
    ],
    [
      0.5233433105673497,
      0.36526219964709145,
      -0.09383584600463006,
      0.59505691399191,
      683,
      384
    ],
    [
      0.48221940678461755,
      0.3563465171870611,
      -0.07136248453166016,
      0.5765236422445034,
      1092,
      384
    ],
    [
      0.5672761028919693,
      0.370582383603179,
      -0.03374503001162741,
      0.4891943924559615,
      273,
      614
    ],
    [
      0.5327986892246339,
      0.3485623939901117,
      -0.06062993245200703,
      0.5601369649932139,
      683,
      614
    ],
    [
      0.4866015088621227,
      0.33442612439109903,
      -0.05722364961289727,
      0.598013733471702,
      1092,
      614
    ]
  ],
  "coef_x": [
    1.7007550923153758e-10,
    27483.387400677257,
    16152.163637127233,
    4647.990040148872,
    -22205.342538663546,
    -24061.32940411924,
    -29232.409229674435,
    -22329.288852887104,
    -5409.970082042013,
    -30716.637614719522,
    34926.54908971399,
    34323.03828831184,
    -20459.233138399242,
    -13494.247305976782,
    10157.277401353203
  ],
  "coef_y": [
    -2.760316419880837e-10,
    -49786.04937317666,
    -32584.831317079905,
    -9800.846488979398,
    48047.23175815294,
    17795.28883311376,
    39153.278296022756,
    84834.37834189057,
    48411.87184553171,
    58321.308212799595,
    -69240.76505828567,
    -53255.03542632054,
    35778.518867530875,
    13874.916090628094,
    -42283.56263928847
  ],
  "intercept_x": 480.9612189451319,
  "intercept_y": 2414.887045254926
}